encog,BasicNetwork,java,3.3.0,1,1472113992533
[BASIC]
[BASIC:PARAMS]
[BASIC:NETWORK]
beginTraining=0
connectionLimit=0
contextTargetOffset=0,0,0
contextTargetSize=0,0,0
endTraining=2
hasContext=f
inputCount=5
layerCounts=2,7,6
layerFeedCounts=1,6,5
layerContextCount=0,0,0
layerIndex=0,2,9
output=-0.0068870857,1,0.0053674319,0.0463432514,0.7408954811,0.1469969282,0.1786425078,-0.186778315,1,0.0444,0.0555,0.0777,0.0888,0.0999,1
outputCount=1
weightIndex=0,7,43
weights=-0.8790828621,-0.8654380576,-0.023419028,-1.5659102236,-1.6358553265,-0.7002584594,0.4469136838,0.7633690462,0.4463677657,0.585329679,0.2901026528,1.1190573284,-0.2363345719,0.8336770408,0.7497053676,1.177594205,0.3463184526,0.3552199174,-0.1899860553,0.3590770043,0.6576280502,0.5317108953,0.1913336421,0.576244707,0.7841491019,0.6029957502,0.7589145444,1.4001485929,1.1631872182,1.5671888548,-0.2894678606,1.1060165702,0.5253025125,0.941165824,1.4902236902,1.5233568725,-0.2553251307,0.5502043325,0.2719994188,0.5975194499,0.3041977922,0.8285172088,-0.3847308689
biasActivation=1,1,1
[BASIC:ACTIVATION]
"org.encog.engine.network.activation.ActivationTANH"
"org.encog.engine.network.activation.ActivationTANH"
"org.encog.engine.network.activation.ActivationTANH"
