encog,BasicNetwork,java,3.3.0,1,1472404162315
[BASIC]
[BASIC:PARAMS]
[BASIC:NETWORK]
beginTraining=0
connectionLimit=0
contextTargetOffset=0,0,0
contextTargetSize=0,0,0
endTraining=2
hasContext=f
inputCount=5
layerCounts=2,7,6
layerFeedCounts=1,6,5
layerContextCount=0,0,0
layerIndex=0,2,9
output=-0.0052549391,1,-0.0733774209,0.0613441087,0.8164760816,0.2027686258,0.0941975074,0.0900867076,1,0.0444,0.0555,0.0777,0.0888,0.0999,1
outputCount=1
weightIndex=0,7,43
weights=-0.7710881983,-0.9656233586,0.1317120924,-1.7734891333,-1.3530609811,-0.959134603,0.4633282852,0.5139191453,0.3697152127,0.2728144508,0.6877062026,0.8358172484,-0.2826108831,0.3567004446,0.7082738212,0.658847433,0.4750629948,1.0836286496,-0.1953580075,0.6583637032,0.4813581565,0.5620026513,0.2334380126,0.2464493376,1.0011904233,1.1950892369,0.8701262959,1.5369288733,1.0879005382,1.4034703051,-0.2519673846,0.6198331572,1.1999390821,0.7272896954,1.1326702399,1.0403543996,-0.2606625321,0.4500045544,0.3544005771,0.6923460683,0.5514567678,1.127635243,-0.1647332413
biasActivation=1,1,1
[BASIC:ACTIVATION]
"org.encog.engine.network.activation.ActivationTANH"
"org.encog.engine.network.activation.ActivationTANH"
"org.encog.engine.network.activation.ActivationTANH"
