encog,BasicNetwork,java,3.3.0,1,1472474991856
[BASIC]
[BASIC:PARAMS]
[BASIC:NETWORK]
beginTraining=0
connectionLimit=0
contextTargetOffset=0,0,0
contextTargetSize=0,0,0
endTraining=2
hasContext=f
inputCount=5
layerCounts=2,7,6
layerFeedCounts=1,6,5
layerContextCount=0,0,0
layerIndex=0,2,9
output=0.0038683124,1,0.0200170783,0.0048368783,0.5596406474,-0.0117915826,0.019650877,-0.0042309745,1,0.006,0.007,0.008,0.009,0.01,1
outputCount=1
weightIndex=0,7,43
weights=-7.0743027679,-5.3995149281,-0.4529255824,-3.9548874754,-7.0197271808,-4.5647429256,0.4970636689,3.3280364675,2.8004827586,3.3918098021,3.3502046067,3.2336552858,-0.1091747184,2.7210147019,2.6843536449,2.6496250665,2.3529471314,1.9669846328,-0.0923230188,0.3543902105,0.662696868,0.1825358888,0.6193454803,0.031557684,0.6181946151,1.5329833259,1.8490163924,1.8851418925,2.1940162561,1.6827964831,-0.0855883902,3.074034909,3.1356723142,3.1497889242,3.4547849004,3.1915358254,-0.1089472423,1.8169357002,2.5293372548,1.7508707673,2.4041081159,2.0006391253,-0.0884883052
biasActivation=1,1,1
[BASIC:ACTIVATION]
"org.encog.engine.network.activation.ActivationTANH"
"org.encog.engine.network.activation.ActivationTANH"
"org.encog.engine.network.activation.ActivationTANH"
