encog,BasicNetwork,java,3.3.0,1,1474042310030
[BASIC]
[BASIC:PARAMS]
[BASIC:NETWORK]
beginTraining=0
connectionLimit=0
contextTargetOffset=0,0,0
contextTargetSize=0,0,0
endTraining=2
hasContext=f
inputCount=5
layerCounts=2,7,6
layerFeedCounts=1,6,5
layerContextCount=0,0,0
layerIndex=0,2,9
output=-0.0002867081,1,-0.0415472824,0.7931419151,0.98728964,0.9653124489,0.143341999,0.8570933195,1,0.094,0,0,0,0,1
outputCount=1
weightIndex=0,7,43
weights=-1.4145777284,7.8705732614,3.651551624,-15.6307357428,5.8479673966,0.0574102849,4.294399284,0.9750372887,1.6429699364,1.2996873469,1.1616791986,-0.3553048377,-0.1332247183,10.2947866181,8.9637550167,8.1076003621,8.9828499874,6.1030432493,0.1121358788,0.3870350313,0.1803329813,0.376207347,0.4293536892,0.9971091878,2.4896735032,16.6019553801,16.9592225023,16.2960837139,16.741830179,13.5249354867,0.4579290217,-0.7987924114,-2.8897212776,-2.2114268207,-1.7737415224,3.3018043525,0.2194225153,1.4784985377,1.5105199586,1.5434770284,1.7036448903,0.2715220314,1.1433091274
biasActivation=1,1,1
[BASIC:ACTIVATION]
"org.encog.engine.network.activation.ActivationTANH"
"org.encog.engine.network.activation.ActivationTANH"
"org.encog.engine.network.activation.ActivationTANH"
