encog,BasicNetwork,java,3.3.0,1,1474135819854
[BASIC]
[BASIC:PARAMS]
[BASIC:NETWORK]
beginTraining=0
connectionLimit=0
contextTargetOffset=0,0,0
contextTargetSize=0,0,0
endTraining=2
hasContext=f
inputCount=5
layerCounts=2,7,6
layerFeedCounts=1,6,5
layerContextCount=0,0,0
layerIndex=0,2,9
output=0.3490957417,1,-0.2871451512,-0.5755506996,-0.0020494064,0.7028646246,-0.7131225075,0.1306544571,1,0.094,0,0,0,0,1
outputCount=1
weightIndex=0,7,43
weights=-0.038127326,0.4733977964,0.4151973301,0.1329698796,0.3058246668,0.3765662293,0.7022114683,0.6481861795,0.2412441452,0.5155371399,0.1616485659,0.8167545557,-0.356381582,0.1703711807,0.2580055487,0.7368596045,0.9974459344,0.2321530192,-0.6717986788,0.0056611444,0.4681947875,0.5895471866,0.7437397126,0.076431983,-0.0025815569,0.1515475866,0.7443503655,0.2589090404,0.9618342446,0.456049662,0.8586941972,0.0337822738,0.549581664,0.4874221037,0.3170256992,0.5954322568,-0.8966844052,0.698592695,0.930879602,0.3318507179,0.6749578328,0.0260185089,0.065737902
biasActivation=1,1,1
[BASIC:ACTIVATION]
"org.encog.engine.network.activation.ActivationTANH"
"org.encog.engine.network.activation.ActivationTANH"
"org.encog.engine.network.activation.ActivationTANH"
